3 100
</s> -0.0020585 0.0017181 0.0013974 -0.00048166 -0.0006123 0.0022632 -0.00019192 -0.00081455 0.0018592 0.0011032 -0.0011337 -0.0021018 0.0011014 0.00056858 0.0010581 -0.0023258 0.0003866 -0.0005471 0.00055174 -0.0012869 -0.0014279 4.1656e-06 0.00085684 -0.0010955 0.0030948 -0.0023043 0.0015289 -0.0021909 -0.0010316 -0.00065346 0.00023729 -0.00098619 -0.0024526 0.00030123 -0.0034385 0.00033028 0.0025305 0.0013922 0.0024995 -0.0017837 7.1654e-05 -0.0014219 -0.00045698 0.00069458 0.0022873 0.002753 0.00070428 -0.0013838 -0.0019391 0.0014549 -0.003125 0.0011378 0.00014589 -0.0028635 0.00027229 -0.001913 -0.00017559 -0.00088835 0.0039546 0.00072959 0.00018557 -0.00058225 0.00066189 0.0012303 -0.0015577 -0.00099171 0.00035725 -0.0010799 0.0009589 -0.00033272 0.00037238 0.00011541 0.0024768 0.00090649 0.00016453 0.00013432 0.0031576 0.00096632 -0.0011207 -5.7697e-05 -0.00039689 0.0027187 0.0016453 -0.00089184 -0.0024677 -0.00246 -4.8908e-05 -0.0013185 -0.0015195 -0.0001295 0.0022692 0.0012567 0.0018834 0.0008592 -2.813e-05 -0.0053738 -0.0029281 0.001073 0.0017961 0.00043484 
誰 0.0014278 0.0019468 0.007482 -0.0012622 0.0025177 -0.00026511 -0.0058116 0.0025155 -0.0042948 0.0015077 0.0016261 -0.0033726 -0.00098702 0.0028875 -0.0073612 -0.0026411 0.00036672 0.0067962 -0.0031574 0.0022619 -0.001003 0.0064863 0.0033081 0.0065394 -0.0035905 -0.0039152 -0.0075071 0.0012421 -0.0024677 -0.0012557 -0.0052286 -0.0036567 0.0056783 -0.0078047 -0.0081149 0.00048981 -0.0068344 0.003876 0.0030336 0.0001982 -0.0096256 0.0061173 -0.0068519 -0.0025243 0.0056618 -0.00026538 0.008014 0.0002255 -0.00075849 -0.0023197 0.00021029 0.0022237 0.003404 0.0023134 -0.0085185 0.0025195 -0.0018845 -0.003971 0.0045383 0.00054823 -0.0030519 -0.0014688 0.0024412 0.0055413 -0.0025878 0.0020704 -0.0028639 -0.0044988 -0.0056078 -0.0060842 0.0036998 0.0033425 -0.00025449 -0.00044961 -0.0052554 -0.0013048 -0.0041798 -0.0012431 -0.00054131 0.0017104 0.0042737 -0.0010906 0.0012979 -0.00024613 0.0058354 0.0028078 0.00014885 -0.0026034 -0.0023344 0.002942 -0.00056304 0.0045704 -0.0014778 0.00040235 0.0036347 -0.0036303 0.00062474 0.0056734 -0.0042103 -0.0032121 
担当者 -0.00079976 -0.0014965 -0.001081 -0.00016626 0.0021717 -0.00011618 -0.00077174 -0.0020112 0.0011918 0.0021373 0.0014912 -0.0035568 -0.0027134 -0.00053617 0.0010306 0.0028771 -0.0022818 0.00051627 -0.00054759 0.0010516 0.0020482 -0.0024982 0.0015031 0.0029314 -0.00076036 -0.0031327 -0.0016525 0.00082664 0.00035348 0.0007391 0.0016743 0.0011208 0.0039175 0.0034595 -0.0017414 0.0033205 -0.0025229 0.0014827 0.0019189 -0.00014085 -0.00018287 0.0019052 0.0006899 -0.001305 -0.0013712 0.0017188 0.0024698 0.001064 0.0042074 0.00095676 -0.00050869 -0.00058985 -6.5931e-05 -0.0025614 -0.0021527 0.0016804 -0.0033544 0.00049593 0.00069219 -0.00055496 0.00027191 0.0013769 0.00036323 0.00085169 -0.0015107 0.0021598 -0.0036408 0.00011029 -0.0027141 0.0030369 0.0052734 -0.0020419 0.0025325 -0.0015465 0.00078064 0.0019336 0.00032374 0.0012044 -0.0033735 -0.0023501 0.0034488 -0.0038281 0.0017783 -0.0038129 0.0026535 -0.0054088 -0.0011879 0.00093078 0.0023721 0.00052662 -0.0017546 -0.00046285 -0.0012551 0.00059774 -0.00072338 0.002469 -0.0015141 -8.879e-05 -0.00012638 0.0029348 
